<?xml version="1.0"?>
<opencv_storage>
<stage19>
  <maxWeakCount>7</maxWeakCount>
  <stageThreshold>-1.1634507179260254e+00</stageThreshold>
  <weakClassifiers>
    <_>
      <internalNodes>
        0 -1 89915 9.1985855251550674e-03</internalNodes>
      <leafValues>
        -4.3915343284606934e-01 6.0869562625885010e-01</leafValues></_>
    <_>
      <internalNodes>
        0 -1 162094 -4.4273278035689145e-05</internalNodes>
      <leafValues>
        -7.4987518787384033e-01 2.5309431552886963e-01</leafValues></_>
    <_>
      <internalNodes>
        0 -1 26817 3.1942225177772343e-05</internalNodes>
      <leafValues>
        -4.3577879667282104e-01 4.5522916316986084e-01</leafValues></_>
    <_>
      <internalNodes>
        0 -1 25612 -1.1929974425584078e-03</internalNodes>
      <leafValues>
        -8.2999521493911743e-01 3.1558361649513245e-01</leafValues></_>
    <_>
      <internalNodes>
        0 -1 139207 1.3371837849263102e-04</internalNodes>
      <leafValues>
        -6.1887979507446289e-01 4.5822519063949585e-01</leafValues></_>
    <_>
      <internalNodes>
        0 -1 58569 2.6296253781765699e-03</internalNodes>
      <leafValues>
        -4.4182491302490234e-01 5.3345787525177002e-01</leafValues></_>
    <_>
      <internalNodes>
        0 -1 9440 6.7982205655425787e-04</internalNodes>
      <leafValues>
        2.3119501769542694e-01 -1.</leafValues></_></weakClassifiers></stage19>
</opencv_storage>
