<?xml version="1.0"?>
<opencv_storage>
<stage18>
  <maxWeakCount>5</maxWeakCount>
  <stageThreshold>-5.8027273416519165e-01</stageThreshold>
  <weakClassifiers>
    <_>
      <internalNodes>
        0 -1 153865 -2.8014993295073509e-02</internalNodes>
      <leafValues>
        6.8000000715255737e-01 -4.8108106851577759e-01</leafValues></_>
    <_>
      <internalNodes>
        0 -1 139233 1.6582717653363943e-03</internalNodes>
      <leafValues>
        3.3742883801460266e-01 -7.5046879053115845e-01</leafValues></_>
    <_>
      <internalNodes>
        0 -1 70701 -3.0720002541784197e-05</internalNodes>
      <leafValues>
        5.2897614240646362e-01 -4.6836423873901367e-01</leafValues></_>
    <_>
      <internalNodes>
        0 -1 37899 -7.3806091677397490e-05</internalNodes>
      <leafValues>
        4.0135765075683594e-01 -5.5970406532287598e-01</leafValues></_>
    <_>
      <internalNodes>
        0 -1 2274 -6.6707248333841562e-04</internalNodes>
      <leafValues>
        7.6062369346618652e-01 -3.6961391568183899e-01</leafValues></_></weakClassifiers></stage18>
</opencv_storage>
