<?xml version="1.0"?>
<opencv_storage>
<stage5>
  <maxWeakCount>5</maxWeakCount>
  <stageThreshold>-3.6462640762329102e-01</stageThreshold>
  <weakClassifiers>
    <_>
      <internalNodes>
        0 -1 5445 8.1063941121101379e-02</internalNodes>
      <leafValues>
        -6.0714286565780640e-01 7.0149254798889160e-01</leafValues></_>
    <_>
      <internalNodes>
        0 -1 126573 -8.0582872033119202e-02</internalNodes>
      <leafValues>
        7.9492843151092529e-01 -4.6807920932769775e-01</leafValues></_>
    <_>
      <internalNodes>
        0 -1 11619 1.5720229595899582e-02</internalNodes>
      <leafValues>
        -4.3074113130569458e-01 6.6345965862274170e-01</leafValues></_>
    <_>
      <internalNodes>
        0 -1 25799 -7.2454498149454594e-04</internalNodes>
      <leafValues>
        4.9391511082649231e-01 -6.4859777688980103e-01</leafValues></_>
    <_>
      <internalNodes>
        0 -1 106245 -3.8449240382760763e-03</internalNodes>
      <leafValues>
        7.4151152372360229e-01 -4.4677913188934326e-01</leafValues></_></weakClassifiers></stage5>
</opencv_storage>
