<?xml version="1.0"?>
<opencv_storage>
<stage17>
  <maxWeakCount>6</maxWeakCount>
  <stageThreshold>-1.0959528684616089e+00</stageThreshold>
  <weakClassifiers>
    <_>
      <internalNodes>
        0 -1 105819 3.0699152499437332e-02</internalNodes>
      <leafValues>
        -4.9438202381134033e-01 5.7894736528396606e-01</leafValues></_>
    <_>
      <internalNodes>
        0 -1 13966 1.2486605904996395e-02</internalNodes>
      <leafValues>
        -4.2609366774559021e-01 5.0596845149993896e-01</leafValues></_>
    <_>
      <internalNodes>
        0 -1 13374 2.2288909531198442e-04</internalNodes>
      <leafValues>
        2.6059833168983459e-01 -8.8389998674392700e-01</leafValues></_>
    <_>
      <internalNodes>
        0 -1 132075 2.0587272592820227e-04</internalNodes>
      <leafValues>
        -4.3946912884712219e-01 5.9721261262893677e-01</leafValues></_>
    <_>
      <internalNodes>
        0 -1 21672 6.9536538794636726e-03</internalNodes>
      <leafValues>
        -3.7421539425849915e-01 7.1642822027206421e-01</leafValues></_>
    <_>
      <internalNodes>
        0 -1 161872 1.4364981325343251e-04</internalNodes>
      <leafValues>
        3.7760904431343079e-01 -7.3459947109222412e-01</leafValues></_></weakClassifiers></stage17>
</opencv_storage>
